digraph Tree {
node [shape=box, style="filled, rounded", color="black", fontname=helvetica] ;
edge [fontname=helvetica] ;
0 [label="petal length (cm) <= 2.6\ngini = 0.67\nsamples = 99\nvalue = [48, 54, 48]\nclass = versicolor", fillcolor="#f3fdf8"] ;
1 [label="gini = 0.0\nsamples = 33\nvalue = [48, 0, 0]\nclass = setosa", fillcolor="#e58139"] ;
0 -> 1 [labeldistance=2.5, labelangle=45, headlabel="True"] ;
2 [label="petal width (cm) <= 1.75\ngini = 0.5\nsamples = 66\nvalue = [0, 54, 48]\nclass = versicolor", fillcolor="#e9fcf1"] ;
0 -> 2 [labeldistance=2.5, labelangle=-45, headlabel="False"] ;
3 [label="petal length (cm) <= 4.95\ngini = 0.16\nsamples = 38\nvalue = [0, 53, 5]\nclass = versicolor", fillcolor="#4ce78d"] ;
2 -> 3 ;
4 [label="gini = 0.0\nsamples = 32\nvalue = [0, 51, 0]\nclass = versicolor", fillcolor="#39e581"] ;
3 -> 4 ;
5 [label="petal width (cm) <= 1.55\ngini = 0.41\nsamples = 6\nvalue = [0, 2, 5]\nclass = virginica", fillcolor="#b388ef"] ;
3 -> 5 ;
6 [label="gini = 0.0\nsamples = 3\nvalue = [0, 0, 4]\nclass = virginica", fillcolor="#8139e5"] ;
5 -> 6 ;
7 [label="petal length (cm) <= 5.45\ngini = 0.44\nsamples = 3\nvalue = [0, 2, 1]\nclass = versicolor", fillcolor="#9cf2c0"] ;
5 -> 7 ;
8 [label="gini = 0.0\nsamples = 2\nvalue = [0, 2, 0]\nclass = versicolor", fillcolor="#39e581"] ;
7 -> 8 ;
9 [label="gini = 0.0\nsamples = 1\nvalue = [0, 0, 1]\nclass = virginica", fillcolor="#8139e5"] ;
7 -> 9 ;
10 [label="petal length (cm) <= 4.85\ngini = 0.04\nsamples = 28\nvalue = [0, 1, 43]\nclass = virginica", fillcolor="#843ee6"] ;
2 -> 10 ;
11 [label="sepal width (cm) <= 3.1\ngini = 0.38\nsamples = 3\nvalue = [0, 1, 3]\nclass = virginica", fillcolor="#ab7bee"] ;
10 -> 11 ;
12 [label="gini = 0.0\nsamples = 2\nvalue = [0, 0, 3]\nclass = virginica", fillcolor="#8139e5"] ;
11 -> 12 ;
13 [label="gini = 0.0\nsamples = 1\nvalue = [0, 1, 0]\nclass = versicolor", fillcolor="#39e581"] ;
11 -> 13 ;
14 [label="gini = 0.0\nsamples = 25\nvalue = [0, 0, 40]\nclass = virginica", fillcolor="#8139e5"] ;
10 -> 14 ;
}